<?xml version="1.0"?>
<opencv_storage>
<cascade>
  <stageType>BOOST</stageType>
  <featureType>HAAR</featureType>
  <height>40</height>
  <width>40</width>
  <stageParams>
    <boostType>GAB</boostType>
    <minHitRate>9.9900001287460327e-01</minHitRate>
    <maxFalseAlarm>5.0000000000000000e-01</maxFalseAlarm>
    <weightTrimRate>9.4999999999999996e-01</weightTrimRate>
    <maxDepth>1</maxDepth>
    <maxWeakCount>100</maxWeakCount></stageParams>
  <featureParams>
    <maxCatCount>0</maxCatCount>
    <featSize>1</featSize>
    <mode>ALL</mode></featureParams>
  <stageNum>3</stageNum>
  <stages>
    <!-- stage 0 -->
    <_>
      <maxWeakCount>2</maxWeakCount>
      <stageThreshold>-3.7498256564140320e-01</stageThreshold>
      <weakClassifiers>
        <_>
          <internalNodes>
            0 -1 2 -6.9692637771368027e-03</internalNodes>
          <leafValues>
            8.1651377677917480e-01 -9.6078431606292725e-01</leafValues></_>
        <_>
          <internalNodes>
            0 -1 0 1.6216278076171875e-02</internalNodes>
          <leafValues>
            -1. 5.8580172061920166e-01</leafValues></_></weakClassifiers></_>
    <!-- stage 1 -->
    <_>
      <maxWeakCount>2</maxWeakCount>
      <stageThreshold>-6.2249515205621719e-02</stageThreshold>
      <weakClassifiers>
        <_>
          <internalNodes>
            0 -1 4 2.7066207621828653e-05</internalNodes>
          <leafValues>
            8.1632655858993530e-01 -6.4516127109527588e-01</leafValues></_>
        <_>
          <internalNodes>
            0 -1 1 1.0895587911363691e-04</internalNodes>
          <leafValues>
            6.3622266054153442e-01 -8.7857604026794434e-01</leafValues></_></weakClassifiers></_>
    <!-- stage 2 -->
    <_>
      <maxWeakCount>1</maxWeakCount>
      <stageThreshold>7.2413790225982666e-01</stageThreshold>
      <weakClassifiers>
        <_>
          <internalNodes>
            0 -1 3 1.9898163736797869e-04</internalNodes>
          <leafValues>
            -1. 7.2413790225982666e-01</leafValues></_></weakClassifiers></_></stages>
  <features>
    <_>
      <rects>
        <_>
          13 14 8 9 -1.</_>
        <_>
          15 14 4 9 2.</_></rects>
      <tilted>0</tilted></_>
    <_>
      <rects>
        <_>
          13 17 3 4 -1.</_>
        <_>
          14 17 1 4 3.</_></rects>
      <tilted>0</tilted></_>
    <_>
      <rects>
        <_>
          19 17 9 4 -1.</_>
        <_>
          22 20 3 4 3.</_></rects>
      <tilted>1</tilted></_>
    <_>
      <rects>
        <_>
          22 17 1 6 -1.</_>
        <_>
          22 19 1 2 3.</_></rects>
      <tilted>0</tilted></_>
    <_>
      <rects>
        <_>
          24 20 3 2 -1.</_>
        <_>
          25 20 1 2 3.</_></rects>
      <tilted>0</tilted></_></features></cascade>
</opencv_storage>
